encog,BasicNetwork,java,3.3.0,1,1433007328053
[BASIC]
[BASIC:PARAMS]
[BASIC:NETWORK]
beginTraining=0
connectionLimit=0
contextTargetOffset=0,0,0
contextTargetSize=0,0,0
endTraining=2
hasContext=f
inputCount=60
layerCounts=10,25,61
layerFeedCounts=10,24,60
layerContextCount=0,0,0
layerIndex=0,10,35
output=0,0,0,0,0,0,0,0,0,0,0,0,0,0,0,0,0,0,0,0,0,0,0,0,0,0,0,0,0,0,0,0,0,0,1,0,0,0,0,0,0,0,0,0,0,0,0,0,0,0,0,0,0,0,0,0,0,0,0,0,0,0,0,0,0,0,0,0,0,0,0,0,0,0,0,0,0,0,0,0,0,0,0,0,0,0,0,0,0,0,0,0,0,0,0,1
outputCount=10
weightIndex=0,250,1714
weights=-4.7715638748,-1.3517386155,-2.2419397996,0.0003689872,-1.6147864506,-7.0731548715,1.0802878099,0.206116272,9.5715880438,-1.3611074888,-0.0418604076,-0.9557664301,0.1342673971,1.0335376916,-1.5147552789,1.0875319172,-9.4107707339,-9.6981893463,1.0308975866,-4.1422990994,1.2307808893,3.2623175774,-0.3645071165,0.3244504209,0.4367577237,-0.3044960449,1.5734518244,-0.6615414103,1.0729643813,1.2351663917,0.9166448815,0.1277816319,10.2473817073,-1.1035692465,0.7735024253,-1.3145854008,0.6395720401,-0.3275386593,0.0397951174,-0.7311598193,0.5037556213,1.7219102737,-3.9172795143,-6.9463178844,-1.502574706,-146.8236511755,-5.5435798348,1.4753809986,2.6004034117,0.4380707035,0.8353299409,-10.4232893686,-0.9879207173,-1.4036222597,-0.9762125673,-1.1986118515,-0.3018585299,-10.7988135847,0.8976706955,-3.9128148033,1.4491653277,0.6664276111,0.7313595004,-0.0012987059,-0.3205112733,0.5385007135,2.1331567512,3.694901265,6.8744457204,1.9310435327,-3.9968936447,4.3496994242,-0.5622075674,-2.6044491654,-0.0322340991,-0.0340661002,-0.505142921,-6.4200201375,10.7207023931,0.9241850488,7.458984129,0.932938331,-1.3738952633,12.738433557,0.9022805013,0.110794697,0.0672939371,1.3697864505,-8084.3602430221,-266.6059663257,-12530.9743226943,-4.990767738,0.7633175371,-13059.3699064287,0.2614321072,15.9577522121,-0.0095482441,-6.8012577003,1.7978159029,0.6024836942,1.8690248667,0.4056055646,1.4539877835,-1.3784410134,0.7584642118,-1.0052483041,-12283.7791702638,-0.3271973454,0.4365579516,0.7257858326,10.1527906513,-11.2159058378,0.9621778096,-1.8157120296,0.0055941974,0.7543060356,4.4559470098,0.5916820954,-9.0637183148,0.0107118633,14.4689087,10.944181782,-1.1203246301,-19.8321736506,0.1400991789,0.1824943248,0.2404298524,1.519105191,-11128.9006289373,0.9364136302,-1.4225653929,4.6434200192,0.247092728,-0.1184969212,-1.8859786952,-5369.1212911647,-3800.4481546409,-3470.0869400788,-1.6719873675,-1.1849707545,-9976.4077932306,-3.019941891,-0.5630007781,-1.5206238256,3.5732631919,0.4571808207,1.6139936743,-0.4728510523,0.0260928721,-0.6746570102,-0.0646387444,-0.3136636757,-7.2805783492,-4.384016038,-0.404184095,1.2704687818,32.0181454547,-2933.1881940919,-0.3942322671,-1.5048562911,1.0611738277,-8338.9291369583,-0.7349996522,20.7984241312,6.0552369163,-42.0199633997,-36.4733033114,5.2782288377,-5535.9777531286,-0.8707545273,-1.4104994935,-0.9978295563,5.5750292705,-1.5837828515,0.545893634,3.1164684261,0.0834822339,0.4116405525,5.4662751824,0.2258123083,-12516.5534657755,-0.7068846517,-6.3373843602,-10095.9820159367,1.4987432627,-3.2037143319,0.1375689602,0.0336985914,-7.5186803953,-17005.5902741667,1.0219860779,-0.9178952288,-0.7878570767,1.9667900666,-1.1538055192,0.235266302,-10.1519395892,0.9760479886,1.3410155807,0.6414511508,-0.5241382317,0.7947367362,-0.1003996855,-0.5808082194,-1.823824101,-2.3507260544,-0.4742169434,-0.2279104563,3.8469562857,0.1383677682,-2.2169899915,0.4169592718,-1.3256513012,5.0257243122,-1.8502318072,1.5713425111,-0.5918694467,-0.8329938468,0.8764636521,-0.0657582405,3.6741724489,-9.8928163772,-9.3689817627,-1.3327141062,-0.1343870745,0.3281896958,-0.3475522335,-0.5869371407,-0.4497592975,-8426.0164053296,38.6362410978,-1.0768816616,1.6208578598,1.3630113768,0.2902958567,-52.5346931352,1.394601522,0.447503981,-1.5647394286,-1.9137057162,-5.2352575231,-3444.933400479,1.2049331816,0.6105146093,0.1681033997,0.7359911326,9.6485273534,2.8063851405,-0.2459558502,-0.1529026057,2929.3338960773,6579.7162434586,-413.0158409299,-1959.9513413111,15445.1103219024,13.2728531755,1458.1662971418,2205.0946498674,12561.8437049238,3404.9612030268,-752.1770549181,453.4559574195,2388.5176026612,8552.163548877,5743.7202804575,-5447.9242782009,0.2938627981,-6513.3921679998,58.3522444349,1214.7533018982,26.4969386234,7.4779203223,10254.248126185,3734.5252311753,5949.6527839685,74.1788280079,10911.3501770862,5688.4327515854,444.0987891095,1834.789145154,-46.1247771026,3910.4356276366,393.1531592105,1216.0629420776,-103.9255316149,-608.0174655775,258.661834827,-5106.715089258,245.9575754804,-464.3794365968,-2371.4847133946,-33.4991217748,9385.5788630843,71.7995719209,38.2229233399,2261.9932712847,-2357.8182142516,206.1975562654,281.057471097,3324.2867353017,-476.9645782406,1609.5192875439,22.1945386223,574.1252446295,-5.6489398021,84.4763456974,-49.4397415132,1939.2864523335,-2.2621785251,322.2013827984,-2.7196114199,368.4792448505,3675.721525176,551.4925452613,-4979.4712621828,14145.4406792924,60.7152971569,3295.4186934856,2224.3928234352,14950.767437039,6488.9627981529,152.39851202,6240.5549317523,-1778.2719075509,13573.5619139748,-1528.3810646448,-6610.2939358521,-0.3041141931,1235.1979860665,6616.7028456359,-5930.799276053,-1260.5199511796,9637.1750115084,11322.8097887699,10566.6046962734,3470.5292639147,-5.684287424,5493.825383375,-15329.0438200144,6368.6241500627,3282.2007500749,650.7221535187,5136.720889568,11770.0852548022,-475.1674548744,-831.1210509007,-47.1678625077,-5912.6057630194,201.1241379279,-72.928350653,-85.1017091289,-1531.2313694769,482.8832923286,2288.9436325273,-2255.3827561814,244.6559719929,14338.2165424288,445.952105072,-4826.2523292416,2551.3330802699,3323.5652741163,2327.9299448917,6371.5925901731,4748.4314302232,-13.5487635753,-135.1192515893,-3670.0553094099,-52.6100708964,-25.6849861358,-633.6477296562,272.411419898,-3.8829244463,49.1849661869,7827.0355894286,1.4798894164,2139.0763638137,17445.1301493462,1245.3626878713,-4.1549450737,5.1873456157,14730.6985642765,732.5057239656,2458.7296284831,278.8344587852,-289.7748712301,11182.6474879305,0.0528799213,-6648.1892295623,1.3549331344,-1.1050410712,1287.141814108,-548.8682080911,0.5095837065,2946.9867248545,1.1578053048,8557.5605796604,1378.3100732797,194.4149635042,-34.2812260811,-15059.2567663085,6234.9722103785,3429.4935360682,1472.3987184393,6473.0284367606,774.8938828703,415.8136170299,38.209748212,-55.1342628601,-6.0101667335,-3521.4446260988,12.0736887331,572.7026421798,-1215.3335857724,37.9450326909,-3.6253890256,26.5597734818,1.8495896532,5982.3949597794,13.9398006397,-252.4334765829,0.1113041221,-9.513981397,-0.2796972443,30.4454334444,0.3235955746,-0.7461755164,-2.8365600357,5.6429396211,-6.3649273498,-0.75292272,-0.5615625635,-37.3021531991,-1.0771075888,1765.3553093188,-7098.9328543128,-494.3261090158,13992.3754537602,-16066.4330222101,-7740.6352009443,-1699.5090809143,7675.0060894558,-7419.6705129854,-227.1334327099,-808.0527002808,-1018.4397103623,6333.2205564096,-15.086810086,-3940.2047755234,15032.086008849,-1910.9704346383,4666.0653644583,-353.9577825973,-4460.3891857059,3969.3057861687,-698.4837754435,3900.6655606804,-91.3689710184,2.8021763694,26.9476864557,2994.1737555062,-4453.491335977,-4995.2890340695,-6407.2339732914,1562.1590086382,-11952.3764962391,-7.3180508747,-4440.4865759715,-5898.7700967428,45.3261391897,-486.4404594947,7083.5530386101,-431.6727447416,-9788.1111225943,1591.8440201383,64.3793254399,0.699560719,-3722.0884848668,-1129.3225176648,-1935.8319612725,-2634.4285892612,2255.9924243935,-66.6226532835,215.2525181139,1098.2452371311,8.4111038006,55.2074433772,-5.5802675004,2.0108144211,-240.0320605319,-2564.7017319962,5019.561329456,-0.0916545098,582.2921416882,0.5610202838,-1810.1636903792,4572.6383914312,3667.2490006763,13119.9930436312,17445.2058664988,2868.1251376603,-4861.2065525284,-216.5723345564,8590.7845812954,-11713.2807275284,-77.1290413362,3220.4602288958,-1785.6610890106,6999.9941051242,4.0964022575,-11958.242267736,2723.6827310271,6912.3964255269,-686.3405778118,27.0968285352,1925.0978046852,-112.6289166388,2241.0272020335,873.4381800694,-7244.1792091783,1457.2628121166,2540.2534110044,-15592.6930150616,1914.9362272684,-2102.4601216195,-29.0672262911,1757.8515109039,-728.1367516377,-1080.7430564429,1766.9700828584,20.8654400229,286.3310306711,-815.9269297309,3093.9063734594,1978.8359469134,-0.5502466971,3072.5024682316,621.8229042986,15.1469503419,-969.1213250788,-302.8777889888,-439.4679941936,-3172.8003136468,2246.9141019255,0.3428274374,-538.0525823419,3620.1387377205,8932.1603035846,-3289.9862596443,23.6372263414,-351.8756204984,1.8600650387,-365.9267635079,2.35954864,1008.0289790555,-0.3246123731,-3639.6572394389,-7153.6498395322,5606.1978024023,12354.4065104218,-9448.057442973,5863.9230898529,-845.0886904573,8557.8445551559,7395.138360597,5358.3987043607,347.282979123,1440.9068948189,1444.2082151736,-6729.0786029058,552.0846850261,3767.3212544256,-2.1278280689,5420.6356775251,-2309.3281371349,454.7198127135,1274.218032886,-998.8672025256,-1146.9115444281,4091.6003870503,-5483.601595395,5708.9254055563,1760.1244166766,-7838.9166248545,2598.131756053,5712.7214413209,-5788.3617201274,3204.8610266297,-2.1741438631,4742.9023339812,-3361.9881057368,-7120.3319498263,-11.6662567063,-9878.4007346544,2721.8748271513,-1904.0588795075,-8172.4875894408,17.0431442001,-1231.3411493185,-3815.4368779826,-1669.4048527304,-3081.6205176006,41.8395393578,4872.7856854913,330.4109101578,-6247.6690971053,2.4047047825,-9086.0610937363,-2552.0094354617,517.9358987301,5856.8915134103,908.4057394081,3947.4002229452,-80.4749914469,0.6796529785,-8639.6130116836,-0.8255012406,7878.1785721689,6252.0351537613,-398.2824405779,11544.62948056,14430.0237885641,5395.6486891097,48.8437733516,-2674.8737911553,-11450.2085286562,-3284.4001834973,339.014623501,4535.7273980161,1554.1644595868,-4615.1292610156,1049.6999823006,-2674.4347324655,-1.942094546,1689.8437344275,-37.1800585586,3420.0214887866,-295.9180684171,1789.2746400641,-511.7364684069,-185.492346234,-19.1559600652,18.100696305,6036.8172583209,-16822.6930041736,-6791.4776697766,1531.0366870433,3746.5659512373,2025.448475873,-4.2589690832,-2589.799010862,-1968.7482454569,163.6147228083,6.7459431823,6976.3105125763,6994.2517756216,8310.5334799751,4759.4906390429,89.8086125073,5.4459692686,-1143.3714841632,-15.1460836515,2496.2163610844,938.0225012402,-96.4056166344,4018.9681274286,562.3902638528,1472.0049055723,1.1851122166,-1025.1398541494,3386.4088437259,-0.4952444509,-8.1476452761,4103.8723447894,2201.8261313069,-8.1875023622,0.8613843776,-0.6317081737,-22.05199733,168.3269670926,503.5513987113,4044.0672062503,12104.6685289733,-5.6595838235,-2398.6696267228,60.1307997676,2441.5103327233,895.8986195599,116.8469228838,-1936.6691651723,-1427.9900697558,43.6366581153,-364.4796847099,5273.8597962335,5.265608449,13.4149813075,-2162.1547024217,131.7166656292,40.3449601259,614.0440876199,-22.7657071215,2473.1844357322,-22.1081205599,-188.7705017785,-78.5556407348,-17279.4128912279,1214.5322677949,3650.5074396444,-14.621567873,1038.4221329298,0.8375754636,16.8176009085,17.0028786735,6.1199710783,5.8513963199,2577.5792129679,1121.4351613107,318.074927077,8.327652912,-3.4736562418,-2967.9553378105,-32.6918681975,-15.5796172908,7.0224121172,-4.4278036475,-46.6569038635,0.5416844618,88.8772435245,35.1118219874,-1.1506874711,46.7281067179,-45.0681892274,1.9906383708,-4.885349465,2.4490109633,-321.546178876,2.1819014632,-1.6408654017,-0.675201986,2431.6996690981,-5305.9274219357,-4453.5542733576,-14173.2932814443,-9870.3509476147,3985.9282359854,-1179.0636095436,2798.0857899821,-340.1076417942,1876.7188903273,0.9882695986,1571.1124827559,4275.3784502135,-4052.3715191695,5879.7667645664,4614.3346774246,-28.0518963205,-60.4648550737,-379.4349907755,-150.182396346,483.2224142991,-185.6943001567,3131.9603797249,3337.0523714178,-4448.873122097,-242.6419520223,2819.9694225907,-1578.3045085895,263.6106622303,8756.8519702453,-2072.9252321163,-1834.4273333842,3.2327341912,2804.7387519929,-1330.6684058744,-885.0424395136,27.6413789284,11720.3200477316,1903.744741005,-1660.0393049744,-771.7698131904,1372.6162311466,162.5634253991,-120.3618785305,-137.6496416054,-735.1778866263,3.9393965131,5125.9240724882,-2.3083878493,-4253.0425524211,-95.3014670492,-4557.228440478,-280.1727639139,152.8651038982,5586.0020470544,1388.9195318056,3668.0282818108,-117.795354642,-4.1577244615,-3945.1175045836,1.2762436265,-804.6954531123,-3474.680253815,5624.929263195,3434.3157209302,-10731.8814462662,-4167.8329171709,-1765.3459161496,6104.1564537588,13316.7229607833,4984.6078526972,-261.7992946939,2681.3153797706,-1193.2906673452,11298.1253709655,-6245.3522191869,221.6729179598,1.9919628336,8260.42279041,1505.4001495547,-4109.4190322736,460.448587543,6430.7944488213,3704.6426162768,4840.3786047374,1437.8342168808,2789.6852241775,1010.202823882,-10957.8496329274,5099.8369652833,6109.2490546809,6445.3537315555,1204.4035423482,8476.6608960537,469.5682665625,-210.2050434164,181.6342535221,11.8658924048,-614.2497590392,1814.2263526525,-2024.0098870967,41.3326180528,5.3785629671,6.4232354266,9.172140894,-129.799914785,6382.2209306639,1284.6294490375,-1677.6644902046,-19.224198627,21.4570622418,104.6225865171,6721.5537851858,8852.5291150216,-52.809447342,8.6946379476,-29.8659362391,-66.4704630821,-1.2622796505,-0.0150524543,409.5655985388,0.4237514821,1.1377577067,-7778.4751770617,16.6313268918,1345.5020059955,-17153.9348595694,-2161.2479356474,-386.3079270662,1680.480384638,-2093.1105054317,-3813.7083031211,-856.5402129322,-3542.8561658415,672.4114243656,0.9188928054,-661.6494669534,3748.9296635842,-524.1504716307,1711.6017045983,477.4309605476,-4452.9057610899,1195.0620471904,-3665.7645822082,3351.1679872034,-40.275879608,-2.4062368461,2370.0080645203,-7.9442285316,17443.924060683,-20.0134981585,-3731.6682603609,3935.5890827786,-7554.8323351121,-162.1519138527,1280.8742954705,-2995.0683543027,3389.5320355782,13.4143955729,3052.9937816223,-2709.8310492947,-5494.2715218274,3705.1418386634,12.1901301422,-7.7372398102,-2019.7574724559,-907.9356106202,-4257.6951682033,-759.6590406232,2419.215665462,-1094.2387693444,-4.1681650225,-36.8089064589,-17.8711250221,5.2097836971,9.9961265458,6.0529818012,-55.000484594,-15.62570617,1026.3908104065,1.0963744024,329.0109652508,-0.6073394258,5869.8884728572,-5370.9001305794,-177.8275710402,2320.6562473135,-15329.4883685525,-1471.7518690561,-2359.7785755184,-117.6067315233,-10364.28697445,-1811.5242197654,-75.9330908982,-2898.6372910687,1660.1198548322,-1130.8874986836,-826.0280884441,650.1413323513,0.8921258081,11.355273078,0.177135958,-3428.6940221614,2080.4316250561,-1457.4845678825,114.4501931552,-12.539703395,-13.8091295891,-2451.2957618727,-38.2825761743,14542.6836894012,-4151.9197208644,-733.1239226671,281.1413456206,-8250.0697182999,-1.3372057811,-1588.7444300785,-1487.5842844785,-9.6868509546,-3.1026971769,-5824.8547108669,-87.2185559315,-6097.4674044741,-4785.1135520093,540.2002287981,-2371.1807213528,-592.8294974967,-850.8000356442,-0.679532838,268.1950194825,446.6285575659,-75.6315633871,-0.492883306,2390.7571226786,3.0763463175,14.1721973225,-0.8243242191,62.5740143979,-82.5724153456,-11.8767786313,4031.9671421988,0.553697999,-0.7248736149,0.6481151249,-2007.8217680815,-7840.5134827466,638.5167419163,-1320.2568538794,-17443.9742693523,-5630.3175635243,-2854.9570180741,5494.2847218173,-6124.1572003273,-1493.5881923319,-1528.8514500563,-2314.1790652585,3694.6791729947,2.0097645152,-802.401919985,8223.1913699887,-4309.5236185735,1711.1994664781,-235.0679636813,-3735.9628907388,3799.6765123667,-402.318848237,5966.1767654628,4.3011917045,2.019986018,1562.5188844013,-1496.0829815755,17113.4363875967,-5063.1955690927,-6879.7996108937,-232.3802852909,-12988.3141767588,-43.9276325037,-3783.1035726021,-5679.2001819932,732.1000537424,-1254.0704539212,2537.2862223069,-4918.3606724371,-9194.1068076872,262.1817554382,1590.6105791716,2.3237882897,-991.2565143797,-30.2809957688,-1354.0977013177,-2351.1395296427,3103.5886551162,-1158.4077877374,-18.7649768368,1715.2347761769,-19.8928222523,-76.94163751,322.8016054747,64.5530329655,8.5205506537,-1500.4189088056,5393.9558959782,-0.5706285121,-50.9404556453,0.0089882291,-4230.4620431467,-1521.456227994,-430.9683347436,-11962.6390319633,-7616.9768542201,0.1733507529,735.1724242477,-4291.9226615705,940.3954801494,-1898.1132789477,-0.8863784486,-5208.9280156884,-5228.8298262119,1538.1958066672,2610.641869338,1652.7895692732,-0.1018221267,-590.8823376501,-311.1192753012,332.9044484631,578.222450563,164.3060919702,-5113.609806472,4173.7229535769,-675.7751489393,2526.2372435367,-12409.6002550893,436.4164627591,4967.7949175927,-8508.819913937,-335.4450302359,-2581.1098143309,-127.063741293,720.6794655947,704.0669458855,817.1308318206,478.1515430204,7063.2832994154,959.4097898485,-10.3223097411,5064.1052370186,1027.6826010838,-499.819267139,-6.2966455786,-150.2728847734,583.7929790734,3381.5763088055,-947.1224181239,-33.4076057631,-1823.9936124677,1311.9510908707,-0.3256275465,-10.2698054936,-19.2661344054,742.4349156929,-629.5890946499,-1.2964672655,-1.3754624239,-11.4734088235,-1306.3991503015,0.5849605061,-5067.1395740303,-8139.2542938363,2795.4242132891,10891.4962467547,-7371.026944381,5853.9877894138,-35.8103639067,53.5987394036,4795.0427447608,199.2574103338,20.6078430347,326.8490263035,-4077.0451691193,-4960.3065425775,6845.9170534958,4154.5516987999,0.0873125415,1554.6567624732,-5394.4641900958,2523.0722524174,557.2802511684,150.6730183214,189.7713830988,3195.971487253,-9136.3309207906,2015.8743252749,-3026.8263993887,-5263.3891575127,2943.0931169336,2248.8440792249,-5508.3464071705,5137.9476790449,-1000.9108191746,2840.4063661869,-965.6253031759,-4129.9132298827,780.7713072044,10448.4594799464,2549.8332839379,178.4692980781,-7615.6778876024,6.1443578233,-4584.9314382724,-4142.607052207,-796.881053913,-4527.8111530805,31.8208944563,472.1952032152,8.6613450177,-6705.8326555901,-1.4641586413,-11287.2809508248,2.9137787369,2353.0194591947,3290.2527006379,644.9492191478,2854.7825363462,-8.7957380786,0.3866333666,-7394.9738997563,-0.8954494615,-4562.4519526162,-7248.920642169,-289.5015085688,-1417.187822745,-16915.4672104344,-2484.6133466609,5.7698227186,-1.5576594042,-1452.2722366554,-164.8812886614,-1345.9838689752,-2573.1478343881,-3513.9049577495,6125.7933629676,400.5321542137,6532.3290899941,0.6129095012,-0.3195555139,-16.3593666635,-166.4848718642,96.9341265114,-113.9558192766,-1034.2033136011,692.4182220813,-5.5474932298,143.7192204357,-11586.0986879849,14987.4140847709,-1.3168141983,-5114.0297970387,4995.5227675389,-2451.0924898455,-1.0295182304,565.6297540354,-199.0714739905,4293.9253003222,1.659916833,3284.3189543718,2.7840655402,-5591.3630057203,2065.4740573994,147.4687344092,-2.4576560527,-424.1213815795,-0.1060817538,-1929.7249735854,4.5950677905,196.767145038,-2646.2026530091,0.0819803778,2709.0792920678,-1.9733077703,0.6187774749,-1.3067359413,-0.7430801909,1.804735405,-707.3489598168,3244.1548255665,-0.4245206218,3.0435644758,-0.0881382662,-199.8987121062,-2705.1600944375,1.4977096015,8040.2167149062,-13368.3305539625,-9.7411815798,-118.8537712867,0.1914791473,569.6420524354,-3173.498454797,-199.7070035879,-434.6274709411,0.2301733875,-243.9619465606,1416.199524636,-1252.6185755662,27.4736907359,286.8152638816,1.3855102163,2067.6640037116,4688.0202382864,-390.0016349296,-2.1713766565,559.2821432567,-680.9267425772,0.3923950681,-426.1664979313,15251.2754524868,1625.6426185821,679.5353887299,1.8907788487,721.1041952376,-85.221987463,784.9345273171,26.531433745,0.2871374963,1588.5588486925,-5331.0036183094,1.7715910425,-13.1657315891,-3600.5809351296,12.5914357316,-10.1254188621,-47.4261482696,-2.5162571522,-7.4040967946,0.6815598564,342.3045714857,-6.4500543331,-16.2016074093,-2.5568903918,-383.4548195765,602.762336063,-24.0788828613,105.9037047974,17.8930049747,-30.6370488905,-45.0483652214,56.7722757536,-26.464397585,-0.528987765,5655.4072385161,41.864796115,-231.6497830018,-1445.8741833219,-5095.5482734856,183.5506920339,1.1510114535,7342.3581697147,10662.3556341355,5736.7634179137,2171.3277928954,1383.3668107963,4709.2799063681,-10.2867917913,10085.4015372348,2251.5411918152,-6.1618829164,-799.6466669897,4.1164819746,1502.1817264948,-51.7492639575,4.4097832881,8713.7176455167,3766.8730919096,1689.3430549982,-10.2435706895,9284.627500677,17114.0419422141,183.6226244575,1870.3413191152,541.3818801058,2344.510526585,0.359211252,-80.9817475995,-642.2825473796,-2950.1730734868,-297.1218657744,-14675.4376526449,-1.0632805866,-1129.3286952402,-6059.3577132617,-2.92005196,7233.2685646085,6.5677319046,-146.0071952584,-34.3350343746,974.9532125415,1014.7653208511,-8.8403210712,15.8896317268,-1.710636219,-44.0546240107,-1893.080897822,921.7508229135,13.0948116594,1073.4658081483,2.4137219325,4062.4167298939,-0.4649422485,-206.1588494677,-1.5514016321,-3517.2559105419,651.9459843905,-878.699891031,-6924.5718669489,-7559.7086430877,-9.7768881592,433.3229071588,-2430.5103296188,1923.4225275939,534.7748349553,23.5110943224,-7951.8260429278,-3387.0362003773,3897.7822154378,596.1169658736,6312.1896631713,-0.6637988435,-28.2110065515,-1857.947749341,63.730305094,44.4969245613,5042.4662861869,-1948.175108305,3234.2840456845,5187.866148186,-82.0296004515,-7824.4784210124,17113.1914286723,1455.0749716214,-10816.6653634218,141.5173618061,-549.3707063227,-3.6236688939,63.4313760594,-1749.985361988,-9.045743463,-15.2180611643,-563.1394788343,5.1029724408,-2.9021956106,66.2899146605,-0.2070185531,-1047.3988314724,-2.5283823331,30.9704075438,322.2733621608,3522.3666173782,-11.2467090517,-17.5311438701,42.8970582098,17.9288939308,0.71637359,-7.8174016438,21.8046268681,-1.1355386003,-122.5841363416,-4.5547860898,1175.2252576591,2.8885767571,5.2841466216,-0.1445750902,7261.0964002972,5725.1033488451,-5588.0834828998,-5636.1983757909,16010.1269504086,7504.899118703,2461.2505549016,-26.5089831457,3610.2335363752,-619.4072265472,2332.5358981146,1083.6014239298,2409.546604602,-932.2626317337,8334.6752364025,-7371.677489509,0.605438941,-6129.5051565834,2020.5257936558,3151.3442241883,-293.4014137264,1.1557983194,7821.6342286991,129.1823798703,3.9552872004,-2111.7628944781,11994.4728379165,8633.6094356453,-127.417266807,2223.9673159424,-1528.0455152676,3871.0688829891,-235.7606948846,0.2627143976,5985.3202908888,-996.9961290867,0.0036853355,-13437.4219880795,-85.3311628558,67.930755314,-10236.9715636911,-1.4500897243,1089.1795595269,431.4482091215,160.9639071343,4584.0866880805,1688.8468654695,419.6572596055,2591.4875386517,-316.6969918927,0.1915860544,0.1726248514,-17.4901503495,1.3033355236,71.0285057213,16.3565605035,1437.5827935688,269.3846133796,0.058224854,-4179.8822956491,-0.1347494112,-1.1711870427,2643.3952298601,-1325.8489996584,-11272.3041395032,12641.7833521291,1698.2714286674,1200.4345284663,1669.3864378924,15025.6536132439,1877.8380428486,2.8993532844,-963.7281404871,3765.4956633932,3135.8627634428,-595.9943046788,-3285.3024535145,-3.6473422473,-7542.1928963658,4234.3754354659,-4058.6851662334,-682.1918065943,3713.5044237572,2311.8701007078,5032.1288860542,4575.7294963151,-487.8974733826,4068.6251893232,-11046.1341768097,3980.6590605289,2446.0188186796,-1986.6534066377,507.8167208014,854.3599639862,-19.8876120061,1941.9075944259,28.107458962,37.2623939102,6043.9500393026,219.906771074,-1458.540412327,1371.8293113211,-3720.4577115862,3663.6140945087,-1364.2312214993,1139.1713501482,8241.0271020522,1400.0627035754,-3.0619915106,-854.0045577295,243.5535465304,4.7456923708,-83.6211619079,-420.7950269174,689.0971011045,-4.5578739162,17.708752974,18.1226423523,3555.15664976,-2.5992612451,255.2720674352,-0.370230146,-1638.8834999263,394.8116187987,-3.791882953,175.8168027046,10519.2632185268,885.4399699864,708.586828299,5513.1290851895,5276.1705681956,4440.4116908333,3.7108674861,-1438.8082696321,188.7325989638,-0.5943068995,6120.2980105185,3783.6747859519,-17.103293037,-86.6605258006,-844.1197960104,1728.844655107,-49.4867523876,-2.3936715021,2026.1126780104,88.5342240465,-13.5539163175,-315.1955596629,4082.6965518894,11140.9393229499,339.7934664965,-121.212487721,-3661.4078234572,2880.8561226061,-0.9672115495,-2.6178590227,310.456260085,15.8270443731,58.2302094495,1770.3079209441,124.2612816924,421.5535669041,337.3786616121,-6.7203010941,1409.4577326067,2.4894088534,72.8440275002,-50.7115423559,-3117.0033564148,-20.0320505649,249.3591378106,-89.541704847,-201.3561974867,-391.1394702898,-2.2095199422,187.342840796,5.2804822836,-0.9109642683,59.96923571,9.2809980242,-0.6775162513,-30.4281437257,0.4257195111,-1276.4355811537,1105.7850059809,860.3472399022,14237.4895717871,-5801.273656955,-1198.3298802753,99.5771751315,-1842.2867912665,1918.0374478125,734.5325846025,-25.3161026649,812.8049322712,-1357.007747821,1951.9804971731,-19.0035897457,9967.0147787202,757.4970713488,6460.5129523938,-739.8758174864,-879.1402371116,49.7129942244,-217.1334512105,-15.5309815227,-3228.0063116214,2140.8625965823,1660.5803819482,-4143.3807645805,-10203.2279842538,632.5968569316,-1705.2688250349,-1.0732219305,2399.3387853887,-90.9558780957,827.6377398275,-1780.7866164685,-24.2375478861,3475.000952513,1045.5456786378,-773.3282525424,-0.7984718326,520.7853453519,5323.8470764059,1706.9530684286,1321.9043913996,-1.8209087814,-1600.3507034833,-1478.9500733562,-1046.4604613748,13.1102667428,1190.1618294891,-1559.4120876882,386.1113016872,-75.3827172255,63.3717240279,401.7899456027,-54.2589259955,27.510965982,628.6869201048,265.1375852908,1717.3140055218,-2.6436107231,3381.4682965589,1511.8324503567,-3.9659033473,11118.4541753741,9474.1142289233,-16.6053398705,-1611.2213274908,-73.8393705957,-2117.0892261845,87.5245350492,27.8212870585,-229.9703914935,-235.5153465115,-22.9285373002,-5367.0351222989,3385.6696195653,-1.5953211211,828.7855725951,-21.3272677585,-2699.704261905,-73.9224523874,115.0022817902,215.6775215428,-58.5103642638,-30.5164020092,957.036126401,3631.3379344187,-17112.6507230959,-2834.0493224953,-1076.1532110395,4.5979365567,-815.4311083966,14.8458229409,-507.910354771,-3465.1987611146,1380.6378394559,2.7346934895,10204.1043034551,645.4205800963,4729.5239884935,3819.0226703868,55.873162062,2.9078124227,-36.3008351575,341.662388178,77.6409712975,6.5675360065,-3123.8396514491,3.2181383741,3972.7676267606,-2.0440805719,3187.3391175108,-397.2332835265,51.1439959405,0.3293540792,-175.3140565779,8.7220132616,-1.154834701,0.2479855307,3281.6729527321,0.2622453924
biasActivation=0,1,1
[BASIC:ACTIVATION]
"org.encog.engine.network.activation.ActivationSigmoid"
"org.encog.engine.network.activation.ActivationSigmoid"
"org.encog.engine.network.activation.ActivationLinear"
